digraph Tree {
node [shape=box] ;
0 [label="X[10] <= 11.55\ngini = 0.239\nsamples = 1199\nvalue = [1033, 166]"] ;
1 [label="X[1] <= 0.375\ngini = 0.145\nsamples = 1015\nvalue = [935, 80]"] ;
0 -> 1 [labeldistance=2.5, labelangle=45, headlabel="True"] ;
2 [label="gini = 0.391\nsamples = 169\nvalue = [124, 45]"] ;
1 -> 2 ;
3 [label="gini = 0.079\nsamples = 846\nvalue = [811, 35]"] ;
1 -> 3 ;
4 [label="X[9] <= 0.685\ngini = 0.498\nsamples = 184\nvalue = [98, 86]"] ;
0 -> 4 [labeldistance=2.5, labelangle=-45, headlabel="False"] ;
5 [label="gini = 0.428\nsamples = 100\nvalue = [69, 31]"] ;
4 -> 5 ;
6 [label="gini = 0.452\nsamples = 84\nvalue = [29, 55]"] ;
4 -> 6 ;
}